digraph Tree {
node [shape=box] ;
0 [label="1 <= -353.287\nentropy = 0.965\nsamples = 500\nvalue = [305, 195]"] ;
1 [label="7 <= -1.131\nentropy = 0.145\nsamples = 243\nvalue = [238, 5]"] ;
0 -> 1 [labeldistance=2.5, labelangle=45, headlabel="True"] ;
2 [label="12 <= 0.175\nentropy = 0.792\nsamples = 21\nvalue = [16, 5]"] ;
1 -> 2 ;
3 [label="3 <= -11.9\nentropy = 0.629\nsamples = 19\nvalue = [16, 3]"] ;
2 -> 3 ;
4 [label="entropy = 0.0\nsamples = 11\nvalue = [11, 0]"] ;
3 -> 4 ;
5 [label="5 <= -12.326\nentropy = 0.954\nsamples = 8\nvalue = [5, 3]"] ;
3 -> 5 ;
6 [label="entropy = 0.0\nsamples = 4\nvalue = [4, 0]"] ;
5 -> 6 ;
7 [label="4 <= -37.141\nentropy = 0.811\nsamples = 4\nvalue = [1, 3]"] ;
5 -> 7 ;
8 [label="entropy = 0.0\nsamples = 1\nvalue = [1, 0]"] ;
7 -> 8 ;
9 [label="entropy = 0.0\nsamples = 3\nvalue = [0, 3]"] ;
7 -> 9 ;
10 [label="entropy = 0.0\nsamples = 2\nvalue = [0, 2]"] ;
2 -> 10 ;
11 [label="entropy = 0.0\nsamples = 222\nvalue = [222, 0]"] ;
1 -> 11 ;
12 [label="9 <= -0.049\nentropy = 0.828\nsamples = 257\nvalue = [67, 190]"] ;
0 -> 12 [labeldistance=2.5, labelangle=-45, headlabel="False"] ;
13 [label="13 <= -0.029\nentropy = 0.561\nsamples = 137\nvalue = [18, 119]"] ;
12 -> 13 ;
14 [label="2 <= 119.999\nentropy = 0.929\nsamples = 29\nvalue = [10, 19]"] ;
13 -> 14 ;
15 [label="8 <= 0.036\nentropy = 0.795\nsamples = 25\nvalue = [6, 19]"] ;
14 -> 15 ;
16 [label="8 <= -0.097\nentropy = 1.0\nsamples = 12\nvalue = [6, 6]"] ;
15 -> 16 ;
17 [label="entropy = 0.0\nsamples = 4\nvalue = [0, 4]"] ;
16 -> 17 ;
18 [label="9 <= -0.205\nentropy = 0.811\nsamples = 8\nvalue = [6, 2]"] ;
16 -> 18 ;
19 [label="12 <= 0.069\nentropy = 0.918\nsamples = 3\nvalue = [1, 2]"] ;
18 -> 19 ;
20 [label="entropy = 0.0\nsamples = 1\nvalue = [1, 0]"] ;
19 -> 20 ;
21 [label="entropy = 0.0\nsamples = 2\nvalue = [0, 2]"] ;
19 -> 21 ;
22 [label="entropy = 0.0\nsamples = 5\nvalue = [5, 0]"] ;
18 -> 22 ;
23 [label="entropy = 0.0\nsamples = 13\nvalue = [0, 13]"] ;
15 -> 23 ;
24 [label="entropy = 0.0\nsamples = 4\nvalue = [4, 0]"] ;
14 -> 24 ;
25 [label="8 <= -0.466\nentropy = 0.381\nsamples = 108\nvalue = [8, 100]"] ;
13 -> 25 ;
26 [label="entropy = 0.0\nsamples = 2\nvalue = [2, 0]"] ;
25 -> 26 ;
27 [label="9 <= -0.155\nentropy = 0.314\nsamples = 106\nvalue = [6, 100]"] ;
25 -> 27 ;
28 [label="entropy = 0.0\nsamples = 48\nvalue = [0, 48]"] ;
27 -> 28 ;
29 [label="7 <= -0.58\nentropy = 0.48\nsamples = 58\nvalue = [6, 52]"] ;
27 -> 29 ;
30 [label="0 <= -27003.625\nentropy = 0.65\nsamples = 36\nvalue = [6, 30]"] ;
29 -> 30 ;
31 [label="entropy = 0.0\nsamples = 2\nvalue = [2, 0]"] ;
30 -> 31 ;
32 [label="0 <= -27003.527\nentropy = 0.523\nsamples = 34\nvalue = [4, 30]"] ;
30 -> 32 ;
33 [label="entropy = 0.0\nsamples = 21\nvalue = [0, 21]"] ;
32 -> 33 ;
34 [label="0 <= -27003.502\nentropy = 0.89\nsamples = 13\nvalue = [4, 9]"] ;
32 -> 34 ;
35 [label="4 <= 20.94\nentropy = 0.985\nsamples = 7\nvalue = [4, 3]"] ;
34 -> 35 ;
36 [label="5 <= -30.919\nentropy = 0.811\nsamples = 4\nvalue = [1, 3]"] ;
35 -> 36 ;
37 [label="entropy = 0.0\nsamples = 1\nvalue = [1, 0]"] ;
36 -> 37 ;
38 [label="entropy = 0.0\nsamples = 3\nvalue = [0, 3]"] ;
36 -> 38 ;
39 [label="entropy = 0.0\nsamples = 3\nvalue = [3, 0]"] ;
35 -> 39 ;
40 [label="entropy = 0.0\nsamples = 6\nvalue = [0, 6]"] ;
34 -> 40 ;
41 [label="entropy = 0.0\nsamples = 22\nvalue = [0, 22]"] ;
29 -> 41 ;
42 [label="11 <= -0.017\nentropy = 0.976\nsamples = 120\nvalue = [49, 71]"] ;
12 -> 42 ;
43 [label="0 <= -27003.562\nentropy = 0.9\nsamples = 38\nvalue = [26, 12]"] ;
42 -> 43 ;
44 [label="entropy = 0.0\nsamples = 10\nvalue = [10, 0]"] ;
43 -> 44 ;
45 [label="4 <= -113.551\nentropy = 0.985\nsamples = 28\nvalue = [16, 12]"] ;
43 -> 45 ;
46 [label="4 <= -272.209\nentropy = 0.592\nsamples = 7\nvalue = [1, 6]"] ;
45 -> 46 ;
47 [label="entropy = 0.0\nsamples = 1\nvalue = [1, 0]"] ;
46 -> 47 ;
48 [label="entropy = 0.0\nsamples = 6\nvalue = [0, 6]"] ;
46 -> 48 ;
49 [label="7 <= -0.151\nentropy = 0.863\nsamples = 21\nvalue = [15, 6]"] ;
45 -> 49 ;
50 [label="12 <= 0.117\nentropy = 0.985\nsamples = 14\nvalue = [8, 6]"] ;
49 -> 50 ;
51 [label="8 <= -0.051\nentropy = 0.845\nsamples = 11\nvalue = [8, 3]"] ;
50 -> 51 ;
52 [label="entropy = 0.0\nsamples = 2\nvalue = [0, 2]"] ;
51 -> 52 ;
53 [label="2 <= 101.705\nentropy = 0.503\nsamples = 9\nvalue = [8, 1]"] ;
51 -> 53 ;
54 [label="entropy = 0.0\nsamples = 8\nvalue = [8, 0]"] ;
53 -> 54 ;
55 [label="entropy = 0.0\nsamples = 1\nvalue = [0, 1]"] ;
53 -> 55 ;
56 [label="entropy = 0.0\nsamples = 3\nvalue = [0, 3]"] ;
50 -> 56 ;
57 [label="entropy = 0.0\nsamples = 7\nvalue = [7, 0]"] ;
49 -> 57 ;
58 [label="0 <= -27003.635\nentropy = 0.856\nsamples = 82\nvalue = [23, 59]"] ;
42 -> 58 ;
59 [label="entropy = 0.0\nsamples = 6\nvalue = [6, 0]"] ;
58 -> 59 ;
60 [label="2 <= 74.503\nentropy = 0.767\nsamples = 76\nvalue = [17, 59]"] ;
58 -> 60 ;
61 [label="0 <= -27003.455\nentropy = 0.523\nsamples = 51\nvalue = [6, 45]"] ;
60 -> 61 ;
62 [label="9 <= 0.272\nentropy = 0.408\nsamples = 49\nvalue = [4, 45]"] ;
61 -> 62 ;
63 [label="entropy = 0.0\nsamples = 39\nvalue = [0, 39]"] ;
62 -> 63 ;
64 [label="5 <= 16.023\nentropy = 0.971\nsamples = 10\nvalue = [4, 6]"] ;
62 -> 64 ;
65 [label="2 <= 8.585\nentropy = 0.918\nsamples = 6\nvalue = [4, 2]"] ;
64 -> 65 ;
66 [label="entropy = 0.0\nsamples = 4\nvalue = [4, 0]"] ;
65 -> 66 ;
67 [label="entropy = 0.0\nsamples = 2\nvalue = [0, 2]"] ;
65 -> 67 ;
68 [label="entropy = 0.0\nsamples = 4\nvalue = [0, 4]"] ;
64 -> 68 ;
69 [label="entropy = 0.0\nsamples = 2\nvalue = [2, 0]"] ;
61 -> 69 ;
70 [label="1 <= 767.507\nentropy = 0.99\nsamples = 25\nvalue = [11, 14]"] ;
60 -> 70 ;
71 [label="2 <= 243.675\nentropy = 0.964\nsamples = 18\nvalue = [11, 7]"] ;
70 -> 71 ;
72 [label="15 <= -0.093\nentropy = 1.0\nsamples = 14\nvalue = [7, 7]"] ;
71 -> 72 ;
73 [label="entropy = 0.0\nsamples = 4\nvalue = [0, 4]"] ;
72 -> 73 ;
74 [label="11 <= 0.079\nentropy = 0.881\nsamples = 10\nvalue = [7, 3]"] ;
72 -> 74 ;
75 [label="entropy = 0.0\nsamples = 6\nvalue = [6, 0]"] ;
74 -> 75 ;
76 [label="7 <= -0.899\nentropy = 0.811\nsamples = 4\nvalue = [1, 3]"] ;
74 -> 76 ;
77 [label="entropy = 0.0\nsamples = 1\nvalue = [1, 0]"] ;
76 -> 77 ;
78 [label="entropy = 0.0\nsamples = 3\nvalue = [0, 3]"] ;
76 -> 78 ;
79 [label="entropy = 0.0\nsamples = 4\nvalue = [4, 0]"] ;
71 -> 79 ;
80 [label="entropy = 0.0\nsamples = 7\nvalue = [0, 7]"] ;
70 -> 80 ;
}